function [y1] = nnPID(x1)
%NNAPPR neural network simulation function.
%
% Generated by Neural Network Toolbox function genFunction, 25-Apr-2018 21:07:23.
% 
% [y1] = nnAppr(x1) takes these arguments:
%   x = 2xQ matrix, input #1
% and returns:
%   y = 1xQ matrix, output #1
% where Q is the number of samples.

%#ok<*RPMT0>

% ===== NEURAL NETWORK CONSTANTS =====

% Layer 1
b1 = [-0.49646506289749053886;0.74473097050868763969;0.71504063191330924365;0.0067328908124175256694;-0.060403603856799804872;0.13780158076806695022;-0.84681026480173027249;0.96372749527011092319;-0.97423796931030948176;0.3153721040515811147];
IW1_1 = [-0.72968150192951597433 -0.23707528469422475825;-0.49978978537767815293 -1.008456943957326768;0.13032859682906916543 0.063814470765377551142;0.38883016870890518835 -0.87786310177456738923;-0.49781824672402313903 -0.27432373037331064802;0.7625396813532249185 0.55685907981478366402;-0.72834120496758480989 0.60408594214224509145;0.25735768477937159826 0.047566234376400146067;0.35626845411009794296 -0.78351773898277399244;-0.28295760875030634418 -0.18583955724438766532];

% Layer 2
b2 = 0.15795839834884853325;
LW2_1 = [-0.92643505037883078224 0.36542949961130166692 0.51890889683616303607 -0.51207731395780886618 0.51624243248661494388 0.83958175988689498492 -0.42087562856739341166 -0.86913115251595074451 0.91810032349508363669 0.10621830414606063531];

% ===== SIMULATION ========

% Dimensions
Q = size(x1,2); % samples

% Input 1
% no processing

% Layer 1
a1 = repmat(b1,1,Q) + IW1_1*x1;

% Layer 2
a2 = repmat(b2,1,Q) + LW2_1*a1;

% Output 1
y1 = a2;
end

% ===== MODULE FUNCTIONS ========

